{
  "num_inputs": 5,
  "num_hidden": 8,
  "num_outputs": 3,
  "weights_input_hidden": [
    [
      -0.6736315751234838,
      -0.15659044310294434,
      0.12838813938059368,
      -0.7159901310182337,
      0.8108713486436234,
      0.9657105987100791,
      0.39543966615895876,
      -0.7437568286137743
    ],
    [
      -0.45099378918366106,
      -0.1731187019851086,
      0.03403700720735037,
      -0.4881407616170754,
      0.8747130865123556,
      -0.15739017087101725,
      0.3491576624205368,
      0.33802976719575595
    ],
    [
      0.5948615860573714,
      -0.3501205435406989,
      0.5548532176104615,
      0.6831285182601876,
      0.20493541446824337,
      -0.38482114324715977,
      -0.971356650454992,
      0.7437018255288392
    ],
    [
      0.8560173992575539,
      0.9347063534018643,
      0.8731787761093923,
      0.07799390799512484,
      -0.9346935386716144,
      -0.9961981226058829,
      0.3924247094213702,
      0.6441238755167862
    ],
    [
      -0.9346601434878106,
      -0.0005991384985926107,
      -0.3845791261837357,
      -0.0958231351026202,
      0.3111686345623006,
      0.5485354190975718,
      -0.5980994335812471,
      0.3902890558607277
    ]
  ],
  "weights_hidden_output": [
    [
      -0.5013026615882374,
      0.09002442443665748,
      -0.3130004342418802
    ],
    [
      0.2115492327535451,
      0.9407323715123987,
      -0.31726801372944324
    ],
    [
      0.21055007545942228,
      -0.47249277191189565,
      0.9896416135150417
    ],
    [
      0.6379130629692904,
      -0.0657191120819327,
      -0.4860503028489158
    ],
    [
      -0.09784016920964067,
      0.47670424404100564,
      0.7127351847379744
    ],
    [
      0.7023061520907083,
      -0.40204810951473546,
      0.9202767574722353
    ],
    [
      0.49736366514857955,
      -0.43360123953137153,
      -0.21222048821409278
    ],
    [
      -0.5703323100764486,
      0.6526569691316457,
      0.040572502072287575
    ]
  ],
  "bias_hidden": [
    0.6360445660830492,
    -0.7917309178247727,
    0.8837225577625611,
    0.3355194802346666,
    -0.4152015080552425,
    0.5127315958867085,
    0.33642510647405466,
    -0.3706292756942986
  ],
  "bias_output": [
    -0.3002187448549003,
    -0.3160420601919902,
    0.8534716424361224
  ],
  "fitness": 110.01666666666455,
  "generation": 4
}