{
  "num_inputs": 8,
  "num_hidden": 12,
  "num_outputs": 3,
  "weights_input_hidden": [
    [
      -0.4616241239140685,
      0.7998235281606587,
      -1.0912809507975592,
      -1.7758985424841147,
      -0.10934392142502125,
      -0.08203733952494496,
      0.12052897012633124,
      0.15004495330702583,
      0.4651436556186207,
      -0.06317295209360796,
      0.3909956203371773,
      -0.17002129157125856
    ],
    [
      -0.4476751124163072,
      0.17764060740840582,
      1.4219836484864006,
      0.6769336287238162,
      -0.23119203736510474,
      0.006063713853961206,
      -0.6272208377967696,
      0.8436925770372005,
      -0.07481264228129736,
      0.08848337140794438,
      0.41916522663789335,
      0.0
    ],
    [
      0.8430505527599277,
      0.7809567510047035,
      0.020410385682194998,
      -0.4413605017288026,
      -1.0612463024722674,
      -0.26292704050914595,
      -0.6412777288538254,
      1.5482499425603606,
      0.222012107168312,
      -0.09472941398263657,
      0.004473183698502248,
      -0.0979769296067794
    ],
    [
      -0.7596334789437698,
      0.14496388874257626,
      0.1895922220596138,
      -0.06678804796560955,
      0.00913761973765237,
      0.41204951133456125,
      -0.6261721918376777,
      -0.3970983074643437,
      0.0,
      -0.2964827876293554,
      0.0,
      -0.44579102417784155
    ],
    [
      1.0719441605515838,
      -0.7044490664720027,
      0.5061544984389008,
      -0.8275349981605413,
      0.9154163183671844,
      0.5571081175950864,
      -0.01312296547966707,
      0.14675912821910808,
      0.47166345021199374,
      0.0,
      0.3017071444429157,
      0.0
    ],
    [
      0.11630921881424106,
      0.5090183473559947,
      -0.13276873760314,
      0.14431774204251502,
      1.0906253169850606,
      -0.5837076391718735,
      -0.5240492309007625,
      -0.939465649737192,
      -0.0643635561517748,
      0.4880239387279396,
      0.0,
      0.0
    ],
    [
      0.812020821450788,
      -0.769633674596087,
      0.4568696610161591,
      0.515695490461976,
      0.3069642620972406,
      -0.32023772979953,
      -0.17915683903357638,
      -0.030200068548326908,
      0.0,
      0.3455144567760573,
      0.0,
      0.0
    ],
    [
      -1.2036483784011687,
      -0.1173094230471704,
      -1.310509685353725,
      -0.09682651535102971,
      0.4825957884283171,
      -0.05069430553902321,
      1.3397842399600592,
      0.9030149338411544,
      0.14423274622368165,
      0.21467782517036516,
      0.3717814301878015,
      0.0
    ]
  ],
  "weights_hidden_output": [
    [
      0.22784846256466218,
      0.2759487057210722,
      0.8791608261698242
    ],
    [
      0.7889793102333774,
      0.11396496381618793,
      -0.3802658901467756
    ],
    [
      0.03765815500729286,
      -1.0306829335537204,
      -1.1589729999010303
    ],
    [
      -0.5836657748351409,
      0.6130457103536052,
      1.360292729800229
    ],
    [
      -0.8085347941796894,
      -0.8393561238263147,
      0.512036950485722
    ],
    [
      -0.2377193024554215,
      -0.6944416596808007,
      1.095924217244653
    ],
    [
      0.9659807992718437,
      1.0806098339958257,
      0.4462112155977074
    ],
    [
      -0.13774353166356013,
      -0.6024523404381725,
      -0.07426604933913072
    ],
    [
      0.03198795439874741,
      0.38407353972436714,
      0.39120024495645334
    ],
    [
      0.17987548457624802,
      -0.026030451816753078,
      -0.9837179633613474
    ],
    [
      -0.28457337114444725,
      -0.3708044560762338,
      0.3241908933404357
    ],
    [
      0.06450956200073998,
      0.4586709426141163,
      -0.4730292253718197
    ]
  ],
  "bias_hidden": [
    1.841162040747272,
    -0.9571789473060782,
    -0.026089070047023988,
    0.11688236804872165,
    0.668387826649421,
    -0.4612572069957799,
    -0.46849570545731767,
    0.6233179800001911,
    0.28022202374712657,
    0.0,
    0.0,
    0.0
  ],
  "bias_output": [
    0.00804012043412361,
    -0.896195918579032,
    0.010686989798938118
  ],
  "fitness": 80.0,
  "generation": 19
}