{
  "num_inputs": 7,
  "num_hidden": 8,
  "num_outputs": 3,
  "weights_input_hidden": [
    [
      -0.10954933637742714,
      -0.7531138226782184,
      0.6472767474102807,
      0.9208555643679943,
      -0.8892560017149092,
      0.017057692429288673,
      0.36657048687111415,
      0.061573152283109556
    ],
    [
      0.7928130146195898,
      0.9758981003977873,
      -0.5937713151645365,
      -0.13677617649596163,
      0.691778854081331,
      -0.19645068980409852,
      -0.8077807028426751,
      0.20575409970620995
    ],
    [
      -0.8296956218105436,
      -0.9908544719348891,
      -0.37609197604517375,
      -0.6630325298000403,
      -0.8003113936535378,
      0.3379149495086171,
      -0.8399181703811291,
      0.6682125384372304
    ],
    [
      0.40968937012882445,
      -0.9006108914106592,
      -0.1546524913458298,
      0.5543989400860836,
      -0.6657074775303613,
      -0.2490195350036144,
      0.4360667079941818,
      -0.32589416120724457
    ],
    [
      0.4207692546705757,
      0.38786857296945576,
      -0.743244440567508,
      0.30605803546829424,
      0.7070850621845517,
      0.5185947886483984,
      -0.32168630475202575,
      -0.17782559430229217
    ],
    [
      -0.6378806514056112,
      -0.36331790240860573,
      0.7048825185153182,
      0.9704884890283811,
      0.9218087937116521,
      -0.8160171905427491,
      0.7329336960817072,
      -0.4490337247160825
    ],
    [
      0.4281457519239362,
      0.27550866881134595,
      0.3237306702252003,
      -0.06346193526308586,
      0.5348780641130091,
      -0.8187406849832828,
      0.9640743969298919,
      -0.712833883036025
    ]
  ],
  "weights_hidden_output": [
    [
      0.48952758917444905,
      -0.7162448145575246,
      0.9875236978956206
    ],
    [
      -0.8119785110423179,
      -0.1080419125198473,
      -0.42469563557773116
    ],
    [
      0.4976411100361735,
      0.5489743212667206,
      0.08355171806422912
    ],
    [
      -0.4719467372174211,
      0.5240803258288991,
      0.01733424375246173
    ],
    [
      0.15016965736563037,
      0.660451361602739,
      0.02470078942472087
    ],
    [
      -0.21923139390577884,
      -0.37556543147357524,
      0.3191741262006522
    ],
    [
      0.027458592456158337,
      0.5681870938007991,
      0.5004040206853082
    ],
    [
      -0.3881161472941903,
      0.1202146777564912,
      -0.13367047020952016
    ]
  ],
  "bias_hidden": [
    0.940404168090897,
    -0.20863054785772106,
    0.7203167016320966,
    0.29948811995261426,
    0.612044001548903,
    0.2554649831209306,
    -0.8987084118296358,
    -0.7765720799955771
  ],
  "bias_output": [
    0.7188093060093745,
    -0.535593058102473,
    0.1338840115487887
  ],
  "fitness": 50.5,
  "generation": 4
}