{
  "num_inputs": 5,
  "num_hidden": 8,
  "num_outputs": 3,
  "weights_input_hidden": [
    [
      -0.12198780647248797,
      0.7334346963031388,
      0.6071760156138533,
      0.20488108877599398,
      -0.38565851726406897,
      0.8051534511859886,
      0.8761562012769251,
      0.19722130312566555
    ],
    [
      0.5464660611004615,
      -0.09334396768590181,
      0.8656241776896278,
      0.08342439988025108,
      0.8769551280746439,
      -0.0002788017713266644,
      -0.7569957393969218,
      -0.8876505173106923
    ],
    [
      -0.23561218501212355,
      -0.45159678678120163,
      -0.3101997601368447,
      -0.23216483537161237,
      0.8898991753591932,
      0.11050871248967753,
      0.5721680294544658,
      0.3237789558133535
    ],
    [
      0.8774542788946167,
      0.5649041168302096,
      -0.27290254830473626,
      -0.19656505027154658,
      -0.9073330052466366,
      -0.2799011312829769,
      0.33991547275520073,
      0.6291163394906654
    ],
    [
      -0.7184961316445597,
      0.1099329429750604,
      0.1104357255643611,
      0.301942703473397,
      0.7977435730915703,
      0.6472345542172331,
      -0.9070288408276816,
      -0.8637813814118906
    ]
  ],
  "weights_hidden_output": [
    [
      0.43995246935063004,
      -0.49204003178239675,
      0.6040795466968187
    ],
    [
      -0.6943347932972783,
      0.9540378444065136,
      0.3784312088237147
    ],
    [
      -0.3273774394989555,
      0.15151924454567212,
      -0.6449580526184873
    ],
    [
      0.20764377411010027,
      -0.5119644945813038,
      -0.7373661147889936
    ],
    [
      0.8034699019289533,
      -0.8735537142261318,
      0.04997007551487287
    ],
    [
      0.9305534879783113,
      -0.7361539090577793,
      -0.5617909423431138
    ],
    [
      0.2708897827268848,
      0.8512587250538959,
      0.9735350553339854
    ],
    [
      0.35948460766718626,
      0.37434949888059466,
      0.8534534094295771
    ]
  ],
  "bias_hidden": [
    0.8609852007443455,
    -0.020529549960881743,
    0.06288114248840748,
    0.942433282855337,
    -0.9315959033719237,
    -0.9045916507315148,
    -0.1598300783710085,
    -0.32794395573353685
  ],
  "bias_output": [
    0.6444826538278992,
    -0.7473999491123793,
    -0.5360715925537958
  ],
  "fitness": 0.0,
  "generation": 4
}