{
  "num_inputs": 7,
  "num_hidden": 8,
  "num_outputs": 3,
  "weights_input_hidden": [
    [
      -0.41808992742655526,
      -0.25900755465273906,
      -0.02959176686930065,
      -0.8355093471505382,
      -0.6802124499321247,
      0.4323036656064849,
      0.9801922254194253,
      -0.8961959943697526
    ],
    [
      -0.5556909705330437,
      -0.9623059266634988,
      -0.8713022414929363,
      -0.7621447509097581,
      -0.8586465147432552,
      -0.9182584265814127,
      -0.12756826252254094,
      -0.6838724854339349
    ],
    [
      -0.7194441864898231,
      0.6265647452557088,
      0.7586014453367844,
      0.4318708158232887,
      -0.4108929716800138,
      0.029710982483256432,
      0.24628304927932398,
      0.8066549566398478
    ],
    [
      -0.9165186956504496,
      -0.0936079068034712,
      0.11943150796272639,
      -0.3226755036746731,
      -0.7426859583560368,
      0.8666982220947648,
      0.6157926679026007,
      0.8951364925506642
    ],
    [
      0.040657860617247854,
      -0.4645974731756104,
      0.2591862659724109,
      0.3221398379839646,
      0.20025573763655413,
      -0.01631866451258257,
      -0.482602735459871,
      -0.6242528863155885
    ],
    [
      0.770004763904206,
      -0.9203139249463224,
      0.5295357151814639,
      0.8997382115803383,
      -0.6647566415195998,
      0.9372316184518725,
      0.5133915052145299,
      0.8859316007441598
    ],
    [
      -0.2534321815318934,
      -0.8316761085185453,
      0.6610453987174765,
      -0.0694306068256767,
      0.10849445514390821,
      0.08992277221136913,
      -0.6441395638403851,
      0.21658798136863755
    ]
  ],
  "weights_hidden_output": [
    [
      -0.7770851053710068,
      0.15859687964650027,
      0.03104970827906861
    ],
    [
      -0.42851483627731213,
      0.4909844140543338,
      -0.5158470845367409
    ],
    [
      -0.025584536173325123,
      -0.38249205634748606,
      0.18538081468867995
    ],
    [
      0.664519571419321,
      -0.20644338044685062,
      0.5093748795634974
    ],
    [
      -0.2527554370500993,
      0.9725991633780258,
      0.19457040517563873
    ],
    [
      -0.500872000974953,
      -0.994316711251743,
      0.08880234423008027
    ],
    [
      -0.31302393972843623,
      -0.8101048789164691,
      0.19335928270928382
    ],
    [
      0.705394115346055,
      -0.22544531710206384,
      0.843752815107
    ]
  ],
  "bias_hidden": [
    0.5616602232403045,
    0.41233419532014537,
    -0.6189348246437125,
    0.848345205707326,
    0.8435818268678832,
    0.4665947482075865,
    -0.7481503670418401,
    0.998725987744912
  ],
  "bias_output": [
    -0.3782466975168748,
    0.879228627848027,
    0.6737809867643152
  ],
  "fitness": 1120.0166666666646,
  "generation": 0
}