{
  "num_inputs": 8,
  "num_hidden": 10,
  "num_outputs": 3,
  "weights_input_hidden": [
    [
      -0.3635796107188509,
      0.46338148959567893,
      -0.536018382370101,
      1.0758690492736944,
      -1.1579340136975924,
      0.03483023005771346,
      0.4322677507239834,
      0.11050260475017304,
      0.0,
      0.0
    ],
    [
      0.2783735079771713,
      -0.771892459742942,
      -0.44544624975847236,
      0.6486391818320116,
      0.631030139314628,
      -0.6163770550744221,
      0.36626253845396317,
      0.7551944533420305,
      0.41920519478480633,
      0.0
    ],
    [
      -0.04343884341826798,
      0.14849782691400426,
      -0.05929559566366116,
      -0.5501922857943291,
      -0.47313340210321897,
      -1.6387172116373372,
      -0.2109454958659256,
      0.46357073353234424,
      0.0,
      0.0
    ],
    [
      -0.48412375012908404,
      -0.04683084233957446,
      0.8493549141172018,
      1.0849261256843181,
      -0.9730146803357278,
      0.5247154099514503,
      -0.12634186774477807,
      0.5845046998701592,
      0.0,
      0.0
    ],
    [
      1.0490568032377805,
      -0.24088616397020046,
      -0.5302431734163497,
      -0.2641878896246983,
      -1.232669420133472,
      0.6108867506941232,
      0.23586739454950534,
      -0.37942960343158405,
      0.1126482851311057,
      0.0
    ],
    [
      0.6947896518766958,
      0.3294687162268938,
      -0.9139340943545338,
      -0.7712960256561451,
      0.9707573120857024,
      0.6635265658666016,
      -1.1968415765482807,
      -0.26964616802317465,
      -0.7179397194849026,
      0.0
    ],
    [
      -1.3719471093056828,
      1.3280264399422297,
      0.7230942826763749,
      0.9482939335731169,
      0.21520594904535906,
      0.6096928313528487,
      0.041485081062421436,
      0.0729622101360815,
      0.12236436946271756,
      0.0
    ],
    [
      -0.06319746785166158,
      -0.21808592229156298,
      -0.5850504818065878,
      0.008193744711408546,
      0.19925309202904185,
      -0.49875365262361604,
      -0.48988198926517246,
      0.4132067589328401,
      0.396311134782353,
      0.0
    ]
  ],
  "weights_hidden_output": [
    [
      -0.09623049501084346,
      -0.5700472928090162,
      0.46580954645200334
    ],
    [
      1.0324253392637583,
      0.18479447158559636,
      -0.13678305552329928
    ],
    [
      0.7549639624517769,
      -0.09258710863690078,
      0.8289676625226068
    ],
    [
      0.20510102381395467,
      -0.7034820497508313,
      1.2559334704527836
    ],
    [
      1.1687548888656165,
      -0.18091112744420546,
      0.19431842808617317
    ],
    [
      0.29035386757544657,
      -0.8762719314422072,
      -0.42710204285607056
    ],
    [
      0.10884410265253297,
      0.039340664205278375,
      0.19642407528861072
    ],
    [
      0.4345584636557551,
      -0.6599555989336575,
      0.07747967820716795
    ],
    [
      1.143084269251065,
      -0.07205778494605666,
      -0.40258833071133826
    ],
    [
      -0.05497221051398265,
      -0.03749848134168175,
      -0.026307719671280344
    ]
  ],
  "bias_hidden": [
    -1.081471812983164,
    -0.3807579449797682,
    -0.6415098830650192,
    0.612018033700116,
    0.6241893992721494,
    -1.225389740574136,
    0.15891850411855923,
    -0.39522521962782087,
    0.0,
    0.0
  ],
  "bias_output": [
    0.8814341428908482,
    -0.3652457617009498,
    0.5904603538612521
  ],
  "fitness": 110.0,
  "generation": 19
}