{
  "num_inputs": 8,
  "num_hidden": 8,
  "num_outputs": 3,
  "weights_input_hidden": [
    [
      -0.02923199506876839,
      0.7264964416834497,
      -0.05631112627499557,
      -0.779269932106414,
      -1.3838136775805334,
      0.7659383105662523,
      0.920637172557436,
      0.7477708319646292
    ],
    [
      -0.38483588828941107,
      -0.5214517167117455,
      -0.5957699716330457,
      0.7899925634947189,
      -0.40524487674241794,
      0.33100614016566876,
      0.6631104810272248,
      0.1475704107902922
    ],
    [
      -0.14371526829424497,
      -0.06572532680453436,
      0.08003853172417752,
      -0.2874322760027386,
      0.3040639623335344,
      -0.884526880816286,
      0.8426334750870629,
      -0.777820082019242
    ],
    [
      -0.5429027501499802,
      0.8887946056559042,
      0.4381149050500548,
      0.6905508455092628,
      -0.15517284256282227,
      0.8469717162081359,
      -0.042378697366234896,
      -0.4933706798628761
    ],
    [
      -0.11347951331516626,
      0.4516665078222324,
      0.5317214435227864,
      -0.13825286419423488,
      -0.526390651565059,
      -0.8959556918806042,
      0.19691627577305426,
      -0.03807445754409344
    ],
    [
      -0.6606100368463989,
      -0.3561564015936708,
      -0.27335146710869307,
      -0.6548221901463249,
      0.4837429268500032,
      -0.274861134462257,
      -0.8132074256310653,
      0.43857979723181373
    ],
    [
      -0.6939281320815097,
      -0.16211735837736252,
      0.27846814881770743,
      1.1929227952116475,
      0.270556527652146,
      -0.4451867349965549,
      0.9202709827190712,
      -0.06599854369196279
    ],
    [
      -0.10899177441202879,
      0.26834357465999914,
      0.8267580120476132,
      -0.5367123471681234,
      -0.9701284345870409,
      -0.3355679586130932,
      -0.9018559482901948,
      0.7542435293739016
    ]
  ],
  "weights_hidden_output": [
    [
      0.9345375519377974,
      0.6043459057694316,
      0.8486874201782625
    ],
    [
      -1.0759149166488207,
      -0.2847890269762561,
      1.258401487677006
    ],
    [
      0.4950152907566232,
      0.6987285169399373,
      0.9092096503024099
    ],
    [
      0.7881156984497112,
      -0.912012847921551,
      0.2706177276226317
    ],
    [
      0.12540904967066568,
      0.9238440226498557,
      0.8659458978001466
    ],
    [
      -0.893599905396363,
      0.9696754909020363,
      -0.6721596684773732
    ],
    [
      1.2252492847089747,
      0.18010473343814148,
      0.2538867713793096
    ],
    [
      0.634844568061677,
      0.49750267033361506,
      -0.1842121091051031
    ]
  ],
  "bias_hidden": [
    0.052183714844787565,
    -0.7264520547175077,
    1.244193802593641,
    -0.520113702673716,
    0.08956489124906297,
    -0.1755547599246564,
    0.9143306642797973,
    1.2539724577448843
  ],
  "bias_output": [
    -0.11164248470528049,
    0.8755547601337454,
    1.2635384512814405
  ],
  "fitness": 130.0,
  "generation": 19
}