{
  "num_inputs": 7,
  "num_hidden": 8,
  "num_outputs": 3,
  "weights_input_hidden": [
    [
      0.1994838367407089,
      0.9953766664506327,
      -0.7161945822390403,
      -0.6405299453095137,
      -0.21744739632903332,
      -0.457272945008282,
      0.6619154912261267,
      0.482738789898432
    ],
    [
      0.31914171629082433,
      -0.7994350546281834,
      -0.5183666427712086,
      0.6099051305893579,
      0.8998783123246246,
      0.9753953604384491,
      0.37352056779101206,
      0.8993861274276298
    ],
    [
      0.7046263823525851,
      -0.2815434641309362,
      -1.024193256278623,
      0.2873450215849088,
      -0.49112751836832236,
      -0.4391900867709384,
      0.4776577548346195,
      0.45590115605928005
    ],
    [
      0.46870396671863124,
      -0.4480737961265834,
      -1.0767579074113671,
      -0.18581460108943004,
      -0.21149988229102945,
      0.5254515780971647,
      -0.33938972386786337,
      -0.392748083378029
    ],
    [
      -0.04121988906381813,
      0.5637449666993744,
      2.824272393275873e-05,
      -1.2589257971732368,
      -0.29444803336794345,
      1.0701210285544622,
      -0.8991345992073001,
      -0.8144114828846334
    ],
    [
      -0.777736251053769,
      -0.6949177824343752,
      -0.5563293082990085,
      0.6113985852613009,
      -0.8200618366581343,
      0.006238857360315153,
      0.4907724938722213,
      -0.5406827699066403
    ],
    [
      -0.9314326073432607,
      -0.3375232464301834,
      0.7142111729459499,
      0.07547822590050135,
      0.33601067711654276,
      -0.014683103224546246,
      -0.5724080329357879,
      0.5295267445349905
    ]
  ],
  "weights_hidden_output": [
    [
      -0.641923074549253,
      0.7540721629346483,
      0.7613030564009458
    ],
    [
      0.35321274009217307,
      0.40430506405652644,
      0.42432227325021754
    ],
    [
      -0.22663426086254224,
      0.2856795336579294,
      -0.0030249885952908784
    ],
    [
      0.20516629271411957,
      0.5430950689165026,
      1.482179625103084
    ],
    [
      0.52536893611672,
      0.03861020568137863,
      -0.4626173834485252
    ],
    [
      0.3825945653248606,
      0.4315236466333404,
      0.12739895072613994
    ],
    [
      0.6202549683689373,
      0.14193720147696354,
      0.9208725612021226
    ],
    [
      -0.42825058407399685,
      0.30667928231637553,
      -0.1279516819329669
    ]
  ],
  "bias_hidden": [
    -0.9556821488230698,
    0.3871003662264114,
    -0.26629086218537434,
    0.9971338714353091,
    0.7333040358456409,
    0.7210888915217389,
    0.7837221724841199,
    0.054761913699021614
  ],
  "bias_output": [
    0.32822445687370494,
    0.681045385404055,
    0.41038299495035413
  ],
  "fitness": 150.0,
  "generation": 9
}